#include <stdint.h>
#include "math/matrix.h"

#ifndef NEURAL_NETWORK_PARAMS_GUARD
#define NEURAL_NETWORK_PARAMS_GUARD

#define FIXED_POINT_PRECISION 10
#define NUM_OUTPUTS 1
#define IS_MSP
#define LEA_RAM_LENGTH 1800
#define LEA_RESERVED 2

#define INPUT_OUTPUT_BUFFER_LENGTH 16384
#define PADDING_BUFFER_LENGTH 16384
#define FILTER_BUFFER_LENGTH 1024
#define INPUT_NUM_ROWS 28
#define INPUT_NUM_COLS 28
#define INPUT_NUM_CHANNELS 1
#define OUTPUT_NUM_LABELS 10

#define INPUT_LENGTH (INPUT_NUM_ROWS*INPUT_NUM_COLS*INPUT_NUM_CHANNELS)
#define OUTPUT_LENGTH (OUTPUT_NUM_LABELS*LEA_RESERVED)

#pragma PERSISTENT(LAYER_0_KERNEL)
static dtype LAYER_0_KERNEL[72] = {413, -39, -127, 536, 124, 388, 263, 21, 331, 565, 554, 349, -6, -233, -77, -656, -292, -327, 439, 418, 171, 531, 234, -401, 225, -344, -183, 370, -32, 448, 301, -90, 96, -9, 12, 314, 479, 464, 187, 43, 190, 208, 472, 439, 382, 486, 461, -608, 525, -336, -508, 4, -727, -67, 446, 430, 381, -130, 147, -41, -649, -427, 176, 290, 486, 153, -456, 314, 57, -488, 380, 244};
static matrix LAYER_0_KERNEL_MAT = {LAYER_0_KERNEL, 3, 3};

#pragma PERSISTENT(LAYER_0_BIAS)
static dtype LAYER_0_BIAS[8] = {17, 4, 0, 0, 0, 14, -10, 0};
static matrix LAYER_0_BIAS_MAT = {LAYER_0_BIAS, 8, 1};

#pragma PERSISTENT(LAYER_2_KERNEL)
static dtype LAYER_2_KERNEL[1152] = {-114, -29, -87, 24, 237, 0, 94, -87, -307, -269, -60, -193, -101, -57, 156, 153, 353, 422, -289, 79, 305, 61, 90, 115, 12, -73, 20, -205, 116, -33, 267, 68, 129, -1, -111, -314, -62, 92, 207, 206, 110, 102, 32, -104, -324, 51, 470, 166, 96, 421, 116, -100, -148, -45, 24, -209, 70, -349, -65, -163, 196, 373, 222, -1, 84, 37, -11, 15, 19, -89, -179, -251, 241, -221, -2, 14, 130, -95, 117, -97, -59, -192, -409, -29, -452, -57, -72, 54, -57, 214, -64, -191, -47, 140, -41, 57, 296, -61, -84, 132, -16, -133, -24, 86, 58, 57, 60, -162, 253, -37, -55, 306, 31, -72, 167, -194, -184, -346, 86, -152, -151, 46, -252, 409, -81, -95, 476, -364, -127, 199, -238, 56, -242, -230, 118, 337, -308, -164, 136, -72, -48, -180, 57, -9, -41, -9, -81, 127, 251, -57, -93, -78, 66, -185, 130, 38, 217, 231, 44, -106, 111, 142, 228, -49, 151, -32, 255, 200, -206, -132, 50, -30, -146, -169, 143, 174, 259, -170, 71, -146, 155, -170, -55, -111, 26, -10, -212, -10, 112, 334, 271, 177, -231, -14, -53, 137, 138, -53, 279, 33, -38, 171, 315, 400, -85, 240, 7, 246, -65, 180, 226, 35, 170, -98, -138, 18, 129, -44, 73, 73, -18, -62, -86, -27, 154, -1, -53, -680, 115, 93, -694, 200, -58, -291, 174, 20, -45, 243, -125, -23, 106, 62, -64, 107, -135, 103, 115, 66, 122, -168, -76, 57, 168, -265, 223, 13, -155, 270, -116, -140, 122, 364, 5, 10, 297, 349, 219, 73, 159, 101, -236, 36, -68, 27, -25, -99, -155, -140, -108, 15, -81, 253, -80, -120, 383, -108, -12, 419, -118, 222, 175, 117, 65, 163, -263, -63, -98, -205, -22, -352, -77, -204, 1, 89, 209, 337, -148, 69, 47, 13, -145, -45, -84, -1, -4, -13, 245, 164, 91, 42, 315, -104, -314, 60, 61, 172, -56, 225, 44, 224, -236, -279, -49, -281, -225, -115, 45, -94, -568, 9, 75, -201, -81, 168, 11, -166, 174, 264, 40, -113, 75, 228, 189, 174, -153, -119, 266, 40, -198, -54, -9, -169, -281, 221, -38, -107, -41, -130, -3, -83, -21, 21, -368, -161, -198, -32, -214, -113, 34, 28, 225, 84, -181, 93, 310, -97, -68, 235, 41, 52, 160, -220, -189, -100, -198, 135, 269, -147, -35, 191, -30, 7, 119, -70, 79, 34, 158, 133, 244, -44, 320, 183, 193, 263, -398, 213, 279, -481, -107, 27, -338, 11, -156, 113, 135, 181, 59, -259, 138, -74, -77, 138, -118, 119, -59, -14, -176, -68, 155, 183, 76, 65, -270, -293, -5, -499, -140, 145, -42, -42, -135, 8, -66, -11, -295, -2, -132, 140, 74, -16, 124, 155, -70, 57, 192, 159, -64, 72, -203, 69, -72, -194, 99, 158, -52, 191, 127, -291, -123, 166, 103, -374, -36, -114, 233, 312, -77, 161, 119, -137, 58, 100, 114, -244, -20, 144, 245, 253, -70, 110, 23, 129, 225, 99, -45, 228, 246, -200, -92, -123, 192, -116, -55, 141, -33, 13, -97, 23, 292, -540, -367, -591, -148, 143, 182, -382, 51, 10, 193, -283, -282, 135, 73, 275, 85, -273, -282, 3, -3, 97, -105, 23, 47, -204, -252, -350, 262, -129, -79, -225, 261, 184, -516, -209, -57, -135, -320, -280, 228, 284, 241, -43, -79, 51, -242, -162, -383, 306, 226, 80, -183, 89, -182, 31, -255, 4, 22, 289, -17, -55, -127, 42, -111, -127, -51, -37, 203, 58, -67, 3, 278, -189, -300, -152, 70, 51, 10, 140, -131, -26, 102, -47, -462, 215, 198, 35, -48, -34, 205, 14, 49, -253, 142, 162, 133, 204, -167, 132, 148, -69, -225, -260, 35, -14, -289, -21, -94, -19, 113, -543, -36, 6, 229, 68, 94, 59, 242, -113, -189, 69, 206, 204, 165, -51, 67, 240, -58, -7, -111, 4, -31, 229, 2, 121, 67, 88, 83, -79, 401, 236, -135, -53, -107, 508, 537, -49, 333, 117, -47, -24, -121, 125, 181, 14, 74, -74, -151, -130, 141, 4, 49, 83, 117, 72, 37, -206, -46, 27, 7, 151, 88, -147, 114, 457, 103, -227, 65, -108, 90, -736, -95, -157, -188, 391, -1, 75, 172, 216, 398, 575, -7, 149, -117, -150, 117, 147, -127, 191, 174, 34, -122, 118, -57, 137, 115, 201, 228, 47, -108, -685, -361, 36, -612, -136, -31, -106, -166, 149, 42, 87, 157, 213, -35, -72, -227, 12, 299, 126, 215, 124, 98, -133, 56, 77, 243, 2, 206, 209, -138, 136, 16, 94, 24, 177, 5, 191, 144, 121, -35, -15, 2, -229, -38, 248, -126, -272, -83, -423, -153, -152, 103, 104, 130, 417, -96, 18, 90, -177, -75, 269, 167, -35, 4, -9, 169, 47, -179, -243, 218, 314, 274, 35, 34, 229, 101, 105, 209, 166, -68, 67, 40, -113, 27, 36, -150, -189, 65, -26, -15, -77, 21, 41, 40, -173, -51, 88, 188, -26, -102, 169, 90, -171, -93, -321, 150, 168, 226, 20, -49, -257, -266, -229, -221, 2, -66, -81, 121, 19, 112, -303, -6, 113, -7, -81, 45, -53, 191, 23, -158, -277, -160, 33, 74, 120, -316, 261, 73, -118, -13, -110, -143, 119, -128, -619, -185, -162, -369, -96, 24, 0, -6, -95, -390, 339, -37, -166, 175, -24, 20, 150, 63, -156, 101, -250, 71, 144, -94, 97, -136, 101, -83, 58, -166, -69, 257, -66, -29, 105, -12, 220, 218, 212, 205, 178, 296, 252, 203, -28, -136, 2, -190, -258, -55, -257, -162, -9, 7, 74, 225, -275, 188, -20, -59, -94, -83, -71, 205, -56, -131, 17, 163, -25, -49, 195, 114, -446, -699, -44, 52, -74, -322, 40, 88, -186, 57, -193, -227, -19, -10, -119, -153, -149, -57, 77, -35, 122, 60, 100, -295, 41, 43, 176, 86, -137, -255, 31, 349, -52, -146, 53, 71, 56, -394, -183, -83, -278, -38, -237, -292, -474, 25, -420, 282, -30, 107, -202, 206, 204, 134, -53, 45, -121, 309, 146, -39, -24, 80, 117, 60, 75, -17, 250, 139, 268, -164, -139, 111, -96, -470, -104, 132, 222, 321, 210, 28, 200, -208, -528, -371, 143, -56, 314, 166, -113, 92, -4, -13, -252, 0, 186, 180, -77, -286, -176, -54, 94, -110, 204, -33, 177, -56, -152, -193, -297, -559, -554, 144, -11, -102, 105, -162, 41, -233, -360, -77, 93, 107, 254, 165, 148, -48, -40, -131, -203, 82, 46, 105, -88, -69, -80, 134, -115, -257, -252, -225, 65, -149, 59, -24, 166, 356, 567, 299, -341, 54, -308, 279, 391, 62, 66, -66, -43, -246, -109, -350, 158, 223, -30, -87, -172, -279, -89, 43, -133, 237, 197, 108, -141, -272, -278, -11, 126, -185, 150, 67, 34, 356, 401, 329, 144, -108, 939, 421, -113, -24, 225, -81, -42, -433, -94, -285, -103, 130, -28, -9, -116, -129, -199, -163, 66, 143, 43};
static matrix LAYER_2_KERNEL_MAT = {LAYER_2_KERNEL, 3, 3};

#pragma PERSISTENT(LAYER_2_BIAS)
static dtype LAYER_2_BIAS[16] = {-101, -28, -75, -46, 1, -29, -86, 22, -89, -71, -78, -17, 7, 43, -8, -46};
static matrix LAYER_2_BIAS_MAT = {LAYER_2_BIAS, 16, 1};

#pragma PERSISTENT(LAYER_5_KERNEL)
static dtype LAYER_5_KERNEL[4608] = {-387, -101, 143, 181, 179, -124, 61, -164, -191, -80, -139, 172, 34, 224, 45, -74, -110, 97, 36, 121, 90, 214, -156, -104, -126, 44, -67, 101, 115, -153, 113, -141, 16, -87, -45, 351, -260, -124, 144, -302, -150, -78, -28, 39, 236, 109, -16, 239, 24, -54, 21, 23, -61, -13, 140, 303, 89, 197, 113, 147, -264, 175, 149, 50, -39, 223, -57, -21, 288, -15, 0, -268, 47, -69, -147, 53, 161, 67, 29, -464, -40, -254, 129, -65, -112, -230, -73, 154, -117, -29, 14, -4, 154, -37, -35, 86, -159, -108, -57, -216, -22, -165, 57, 63, 92, 221, -51, -66, 158, 30, 278, 104, -38, 7, -7, 49, 63, 107, -75, -111, -142, 212, -109, -90, 211, -127, -92, 14, -172, 337, -160, 120, 21, 173, 29, -143, -196, -146, 13, -48, 219, 172, 162, 170, -48, 163, -19, 115, -28, -231, -47, -30, -194, 141, 141, -98, 172, -65, 8, 100, 205, -35, -124, -216, 312, 76, 46, -190, 272, 5, -155, -219, -72, -62, 143, 141, 48, -141, -67, -74, -53, -195, 60, 37, -30, 64, 124, 130, -52, 237, -104, 77, -291, -264, -80, 49, 186, 177, 74, 165, 127, 209, -84, -10, -277, -147, -241, 84, 6, 182, 27, 24, 44, 17, -106, 8, 162, 90, 112, -130, -69, -200, 132, -322, -8, 49, 92, 144, 50, -41, 45, 377, -169, 77, -163, 32, -64, -177, 254, 73, 84, -200, 42, 77, -27, -366, 62, -37, 62, 166, 91, -453, -375, -406, -328, -228, -229, -178, -13, -247, -20, -144, 126, -72, 138, 65, 61, 92, -267, -275, -131, -193, 75, 84, 37, 39, -21, -196, 194, 96, -22, -91, 49, 282, 7, -19, 155, -125, -42, -31, -116, 75, -178, -53, 18, -144, 99, 93, 48, 257, 208, 31, -34, -59, 141, -88, -51, -268, -160, -154, -57, -193, 168, 154, -49, -31, -25, 164, 14, -65, 304, -256, -111, -194, 127, -121, 17, 239, -253, -89, -44, 341, -191, -23, -44, -187, -9, 250, 32, 323, -7, -271, 113, -317, 107, -222, 27, -277, 399, -153, -375, -295, 69, -130, -100, 252, -88, 4, -221, 140, 45, -32, 239, -6, 93, -54, 175, 286, -246, 285, -105, 209, 37, 142, 185, 137, 125, -203, 15, -56, -109, 228, -137, -208, -64, 6, 20, -240, -45, 39, 31, -110, -35, -11, -84, 158, 101, 201, 191, -100, 0, 76, 62, 144, -21, 160, 170, 73, -16, -74, -240, -261, 142, 135, -23, 68, 27, -119, -114, 136, 182, -6, 121, -329, 5, -91, -56, -278, -169, 10, -285, 189, -52, -212, -51, -100, 382, -81, -133, 153, 131, 72, 99, -11, -145, 305, 310, 118, -69, -277, 147, -180, 188, 34, 89, 413, -214, 208, 225, 134, -195, 248, -29, -90, -334, 279, 106, 27, 98, 182, 48, 95, -179, -128, 133, -19, -307, 96, -77, -97, -189, 254, 42, -352, -325, 272, -259, 43, 189, -188, 64, 251, -148, -109, 456, 95, 185, 90, 94, 36, -6, 36, 209, -72, -162, -269, -111, -110, 182, -34, 12, 210, 304, 137, 13, 204, 36, -78, -197, -376, -46, 35, 103, -45, 160, -46, -181, 89, 75, 99, 2, 30, -243, -215, 120, 129, -182, 130, -176, -60, 219, -229, -169, 68, -80, -182, 150, 167, 69, -26, 120, 18, -174, 125, 253, -153, -268, 256, 43, -206, -185, 0, -72, -164, -251, 75, -21, 230, 39, 32, -139, 174, -140, 34, 319, -111, 16, 227, -54, 44, 338, -116, -263, 116, 92, -43, 138, 210, 34, -42, 106, -31, -195, 3, 24, -159, 256, 0, 181, 283, -116, 169, -1, 41, -42, 330, 51, -90, -110, 371, -139, -18, 91, 166, -225, -33, 270, -118, -72, -2, -190, -165, 51, -288, 83, 89, -88, -295, -111, 394, 27, 126, -208, 134, -195, 80, -91, -36, 536, 208, -6, -57, -206, 155, 63, -85, 59, 136, -209, -358, -36, 242, 26, 196, 147, 204, 30, 143, -238, -80, -16, -40, 36, -266, -85, -165, 73, 44, 225, 70, -47, 239, 160, -310, 21, -32, -190, 191, -136, -189, -90, 107, 198, -237, 117, 87, 211, 222, -75, 56, -144, -127, 119, -46, -37, -173, 83, -155, 27, -76, 32, -46, 148, 293, -178, -211, 120, -100, 113, 82, -462, 264, 178, 215, 3, 549, -186, 234, 97, -128, 133, 232, -242, 124, -330, 142, -142, 283, 207, -36, -120, -141, 136, -88, -201, 110, 103, 166, -293, 8, -191, 198, 231, -49, -19, -142, -79, -284, 136, 161, -185, -154, 87, -131, -155, 96, 287, -82, 87, 125, 199, 67, 39, -181, 40, 158, -6, 166, 280, 200, 41, 300, -46, -90, -23, -204, -75, 130, 118, -78, 307, -162, -133, 118, -219, -59, 67, 109, -1, 209, 114, 301, 94, -191, 170, -60, -13, 187, -273, -80, -32, -35, -80, -16, 93, 159, 231, -124, 174, -75, -83, -106, -89, 195, -204, -63, 24, -101, -141, 69, 199, 291, 43, 68, -61, -194, -18, -69, 176, -35, 44, -140, 44, -22, -125, 196, 71, -188, -37, -1, 154, -154, -216, -101, 331, 0, -63, -65, 41, -220, 268, 189, 94, -137, -86, 161, 52, -59, 201, 117, 24, -128, -177, -17, -131, 210, -56, -19, 140, -17, 0, 59, -80, -61, -117, -135, 18, 131, -124, -138, 237, 99, -265, -5, -34, 372, 167, -165, 247, -261, -19, -355, 32, -5, -58, 125, 180, -220, 56, -19, 114, -40, -163, -232, -69, 166, -225, 5, 149, 31, 142, 189, 178, -268, 184, 105, 37, 0, -96, -12, -30, -92, 112, -204, -253, -152, -187, -139, -65, 70, 42, -137, -4, 47, -58, 11, -53, -260, -103, -211, 352, 93, -126, -28, -99, -189, 9, -71, 282, -114, 47, 146, -2, -38, -38, 130, -87, 218, 225, -66, -78, 79, -151, 102, 1, -56, -80, 144, 2, 62, -107, -236, -175, -135, -145, -80, 106, -15, 168, -190, 77, 19, 96, 317, 171, 244, 182, 30, -97, -87, 182, 76, 126, -110, 171, -86, -91, -174, 60, -30, 3, 214, 166, 203, 94, 186, 318, 50, -6, -483, -49, -49, -140, -39, -72, -97, -285, 218, 131, 103, -79, -126, 145, -61, 94, -360, -3, -225, 68, -498, -102, -87, -59, 251, 103, 179, -518, -14, 93, 52, -253, -66, 149, -244, 126, -213, 73, 54, -102, 142, 157, 30, -353, -47, 83, -228, 79, -124, -116, 138, -161, 163, -157, 104, 263, 92, -51, -24, 48, -7, 163, -48, 136, -105, 150, 189, 60, -36, 207, 52, 20, -178, -188, 163, 127, -78, 61, -29, 74, -17, 258, -13, 44, 251, 236, -154, 78, -18, -117, -106, 414, -119, -25, -167, 146, 47, -167, -69, 92, 7, 59, 31, -110, -42, 55, -35, 37, -571, -299, -6, 1, 46, 78, 172, -26, -103, 9, -180, 166, 78, -128, -232, 24, 160, -218, 53, -311, -292, 122, 114, 0, 166, -228, -194, -22, -86, -15, 131, -22, -197, -85, -63, -125, -306, -62, -29, -333, 250, 13, -168, -103, 79, 63, -88, -145, 82, -14, 13, -139, -98, -81, -208, -141, -247, -218, 9, 5, 244, 36, 82, -383, -124, 340, 157, 86, 7, 49, -246, 40, -245, 147, -24, -104, -35, -64, 288, -189, 84, 26, -114, -96, 108, -110, 232, 62, -48, -192, -58, 44, 135, -85, -31, 200, 138, -165, -322, 27, -201, 197, -70, 10, 120, -22, 141, 183, 133, -18, 182, -92, -119, -136, -2, -127, 182, 143, -75, 100, -126, -106, 74, -15, 131, -157, -159, -113, 154, -30, -170, -45, 374, 74, -270, 168, -122, -152, -143, 129, -35, -10, 250, -67, 70, -6, 102, -24, -42, 129, -276, -40, -81, -42, -276, 12, 97, -183, -13, 163, -7, 142, 180, 241, 317, -137, 104, 36, -20, 217, -300, -76, -205, 87, -251, 153, 89, -235, 138, 57, -156, 163, 178, 107, 27, -39, -183, -74, 108, -72, 300, 376, 352, 127, -248, 7, 269, -86, -244, 161, 273, -63, -104, 41, -51, 16, -18, 296, -55, -42, -74, 10, -218, -307, 316, 58, 31, 216, -157, 29, -51, -114, 292, 257, 24, 187, 246, 12, 276, -21, 97, -210, 11, 176, -148, -96, 35, 263, -334, 175, 141, 156, 38, 51, -88, -282, 154, -108, 251, -9, -109, -162, -172, -125, 98, 347, 42, 33, 360, -175, 34, 154, 22, 10, -235, -184, 487, -147, 72, 138, 176, -82, 80, 279, -336, -150, -157, -20, 12, 132, 145, -58, -160, 176, -20, -320, 30, -13, -292, -168, -135, 26, -67, -166, -229, 127, 20, 180, 61, 120, -90, 89, -121, 14, 20, -11, -163, 243, -26, 101, 150, -145, -55, -51, 66, 340, -295, -153, -86, 104, -236, -97, 209, 289, -46, -61, -202, -361, -29, 109, 220, -69, -69, 102, 148, 81, -183, -14, -11, 54, 64, 152, -81, 226, -24, 15, 152, -92, 100, -64, 7, -340, 295, 142, 78, -352, -123, 207, -267, 133, -105, -211, 302, -37, -126, 76, 28, -240, 248, 7, -242, -160, -249, 71, 203, -63, 163, 19, -171, -45, 107, -90, -339, 171, -39, -78, 91, 158, -99, -7, -297, 34, -28, -35, -179, -21, 84, -196, 48, -297, 2, -52, 127, -18, -84, 208, 129, 185, -95, 219, -147, -140, 11, -234, -131, -103, 199, -184, 95, -20, 50, 245, 265, 18, 7, 1, 83, -80, -139, 80, -361, -138, -9, -67, -204, 35, -84, 186, -195, 126, -135, -203, 243, 49, 344, 126, 243, -145, -175, 115, 281, -55, 243, 39, -16, 39, -155, -71, 29, -100, -207, -90, 197, 249, -193, 113, 115, 361, 344, -169, -231, -69, 130, -205, 90, -119, 113, -230, 32, 59, 26, 245, 63, 58, -48, -182, -72, 11, 272, 31, -43, -287, -159, 134, 160, -191, 218, 109, 118, -38, 3, 105, -203, 186, -57, -92, -191, 149, -176, 131, 266, -181, -172, -185, -274, -134, -146, 147, 208, -310, 136, 95, -301, -261, 22, 118, -473, 32, -148, 10, 213, 198, -315, -134, -5, -175, -32, -2, -146, -124, -242, 55, 136, 55, 227, 82, 266, -100, 253, 107, 32, -80, -109, 85, 114, -157, -121, -264, 155, -48, 148, 318, 91, -83, -99, -44, -13, 296, -159, -32, 118, -83, 14, 54, -275, -275, 259, -204, -323, -46, -26, 199, -333, 253, -395, -7, 177, -85, 252, 19, -19, -358, 54, 151, 222, 248, -62, -143, 25, 164, -194, 49, -70, 101, -30, 103, 5, -44, -178, -65, 128, 193, -354, 132, 25, 275, -183, -86, -157, -53, 156, 78, 57, -139, 78, 13, 127, -132, 125, 182, 123, -125, 40, 119, 198, 169, -114, 1, 286, -21, 137, -54, -93, 113, -6, 113, 251, -402, 77, 48, -64, 52, 36, -77, -71, 136, -163, -32, 15, -130, 232, -107, -329, -194, 107, -42, 106, 32, 108, -184, 385, 169, 291, 462, 31, 212, 63, -63, 142, 8, 32, -146, 151, 69, -29, 59, 77, -200, 10, 161, 338, -76, -189, 15, -195, -16, 134, -263, 255, 263, 253, -3, 152, -80, -159, 389, 175, -119, -267, -301, -343, -163, 148, 12, -48, -134, -43, 88, 364, 150, 447, 336, 63, 51, 209, -172, -51, 213, 153, 63, -323, -23, -129, -74, 80, -162, -161, -87, 82, 34, -34, -23, -74, 31, -122, -277, 30, -139, -48, 183, -115, 33, 283, -111, -186, -57, 109, 136, 0, -140, -50, -115, -311, 79, -21, -105, 105, 156, 63, 17, -43, 23, 116, -58, 18, -289, 96, 140, -303, -44, 8, 212, -129, -119, -233, -241, 195, 220, -26, 118, 329, -190, -216, 10, -154, 50, 10, -29, 190, 85, 266, 139, 391, -84, 37, 165, -192, -59, -1, 169, -180, -75, -178, 167, -183, 225, -173, -289, -44, 85, -26, 7, -186, 7, 194, -20, -272, -84, -39, -103, -116, -180, 141, 34, -63, -26, 61, 175, -61, 63, -25, -67, 311, 157, 207, -162, 16, -64, -96, 25, -110, -178, 293, 34, 27, -37, -225, -71, 67, -159, 187, -137, 123, 86, 247, 103, -142, 93, 101, 37, -302, -209, -219, 35, -26, -47, 254, 245, -32, -42, 126, 110, -213, 166, 171, -142, -55, -45, 143, 474, -85, -294, -157, -212, -311, -40, 50, 169, 236, 122, -96, -84, 68, 190, -43, -52, -283, 43, 119, 9, 18, 15, 75, 111, 65, 77, -42, -48, -157, 17, 53, 94, -65, -40, 139, -34, 149, -86, -18, -64, -63, -9, 25, 46, 35, -152, -102, 258, 15, -38, 74, 193, 153, 133, -51, 4, -8, -104, -347, -200, 94, -14, 159, -77, -4, -159, -21, 6, 34, -53, 157, 256, -192, -107, -218, 103, -175, 93, 170, -2, -69, 50, -119, -90, 155, -111, -87, -114, 2, -151, -21, -19, -133, -250, -169, -7, 518, -71, -147, -79, 103, -312, 110, 264, -128, -255, 62, 57, -107, -36, -77, -165, -164, -157, 63, -42, 34, -9, 157, -35, 31, -99, 128, 144, -320, -67, -295, -12, 101, 57, 305, -184, 326, -107, -11, -39, 198, 156, 163, 36, -10, 186, 200, 211, 4, -235, -201, -5, -421, 264, -159, -97, 67, 72, -332, -4, -231, 124, -171, 44, -208, -63, 24, 110, 118, -104, -117, -159, 140, -186, -24, 169, -16, -217, 55, -83, 75, -65, 64, 266, 201, 30, 69, -90, 241, -138, 274, 204, -121, 107, 197, 34, -109, 97, 119, 13, -137, -55, -124, -88, 63, -226, 250, -22, -110, -217, -128, 81, 208, 127, 158, -103, 41, 128, -26, 24, -173, 36, 304, -64, -12, 206, 221, 153, -259, -77, -182, 38, -265, -100, 193, -33, -167, 41, 151, -148, 283, 10, 20, 61, -20, 177, -104, 55, -200, -292, 56, -271, 105, -73, 46, 115, -172, -95, -324, -29, -100, -88, -122, -100, -65, 198, 378, -34, 302, -91, 238, 7, 51, -21, -7, 107, -172, -148, -130, 245, 11, -201, 212, 2, -52, -74, 270, -129, -104, -5, 93, 230, -99, -278, 78, -41, -8, -100, 160, -157, 35, 34, -144, -115, -122, -136, 12, -135, -47, 78, -124, 152, 99, 0, 104, 115, 208, -40, 111, 102, 66, -181, 9, -41, -104, 52, 163, -20, 4, -14, 61, -80, -92, 29, 304, -105, -62, -271, 269, 190, 125, -210, -104, -12, 197, -74, -20, 147, -361, -69, 260, -138, 17, 43, -66, -74, 107, -144, 15, -193, 16, 181, 19, 55, 145, 105, 204, 16, 19, -220, -50, 6, -16, 91, -35, 65, -96, -411, 50, 17, 454, -34, 126, -97, 175, 40, 210, 105, -153, -87, 165, 77, 119, -425, -60, 18, -199, 38, -129, -264, -311, -126, -178, -7, 63, 18, -52, -162, 38, 119, 365, 63, 118, -68, 283, -114, 114, -194, 180, 107, -146, -160, -44, -198, 25, -41, 131, 39, 37, 146, -115, 115, -127, -85, 205, 116, -77, 28, 133, -116, -232, -88, 259, 9, 75, 87, -6, -117, 330, -276, -19, 196, -129, -118, -84, 274, -328, -15, -300, -9, 205, -171, -54, 25, -56, 89, -311, -288, -65, 111, -2, -75, -3, 1, -252, 312, 81, -94, -14, 150, -101, -72, -41, 23, -3, -42, 156, 17, -133, 64, -81, -140, -241, 61, -125, 119, 267, 339, -382, 204, 280, 49, 138, -48, 178, 6, 108, -226, 40, -80, -105, 205, -124, 1, -292, 67, -189, 0, 407, -43, -6, -195, -223, 50, -391, 60, -239, 124, -135, 99, 60, -28, -130, -9, 4, 53, -197, -18, 129, -17, 219, 159, -56, -80, -155, -95, -20, -161, 249, 109, -145, -115, 56, -168, -320, 24, 43, -41, 48, 229, 206, -226, 76, 104, -125, 16, -152, -231, -33, -123, -258, -40, 28, -275, 71, -90, 50, 19, -3, 17, -75, 119, 281, 230, -139, -13, 160, -344, -81, 42, 257, -173, -136, -251, -59, 66, 62, -39, 78, -10, -128, -233, -334, 141, 10, 99, -273, 2, -42, 126, -351, -88, 86, 313, 76, -95, -58, -180, 31, -128, 176, -190, 50, -54, -111, -25, -130, -244, 107, 14, -43, 82, -141, -274, 183, -169, -221, -35, -106, -54, 65, -37, -62, 48, 133, 173, 18, 74, 51, -198, -54, 72, -251, 53, 226, 167, -140, 95, -124, 9, -54, 85, 3, -181, -9, -55, 124, -110, -52, 14, 141, -22, 232, 142, 80, -103, -63, 65, -190, -32, -288, 88, -55, -272, 293, -23, -41, -78, 371, 48, -185, 218, 175, -51, 194, 3, -374, -174, -8, 287, -22, 162, -220, 68, -155, 99, -280, -61, 201, -124, 24, 234, 74, -218, -58, -12, 102, 172, -81, 116, -64, 83, -2, -32, -125, -243, 115, -191, 71, 69, 99, 319, -135, -108, -258, -159, 77, 28, -92, 112, -300, 95, 30, 354, 203, 132, -76, 133, -94, -179, -212, 196, 87, 20, -295, -124, -84, 250, 93, -28, 180, -116, 4, -31, -46, -24, -110, -114, -100, -99, 34, 103, 163, -29, 17, -142, 291, -266, 85, -5, 56, -340, 192, 122, 10, -109, 206, 133, 212, -27, -63, 270, -178, 219, -23, -160, -216, 1, 289, 21, -192, 7, 155, -56, -123, 15, -156, -5, -175, -113, -15, 269, -140, 58, 86, -91, 46, 3, -73, 93, 43, 145, 101, 153, 46, 80, 230, 79, 63, -94, 194, 144, -54, -250, -32, 221, -169, 52, -48, -268, -104, -44, -63, -252, -35, 101, 41, 30, 29, -101, 161, -45, -271, -247, 52, 32, -98, -188, 148, -109, 47, 49, 185, -236, -133, -17, 18, 161, -147, 45, 153, -156, 27, 82, -9, -100, 170, -199, -109, 60, 170, 403, -312, -165, 111, 38, -178, -214, 151, -15, 191, 42, -156, 70, -46, -9, -231, 214, -268, -42, 193, 2, 59, 256, 208, -83, 82, -62, -164, 245, -249, -43, 177, -123, -125, 130, -45, -90, 112, 51, -109, 90, -186, 16, -106, -75, 77, -173, 55, 5, 1, 132, 118, 46, -34, -156, 294, -217, 87, 336, 102, 150, 192, -213, -55, -46, 315, -87, 197, -126, -161, -30, -46, 184, 321, 225, 191, -178, -96, -21, -261, -10, -76, -22, 254, 64, 93, -177, 319, 146, -82, 7, -155, -42, -197, 101, 197, -120, 78, -55, 85, 86, 51, -168, -6, 41, -24, 224, 67, 157, -15, -206, -252, 157, -24, 23, -88, 100, -17, 84, -53, 184, 7, 237, 171, 97, 59, 171, -195, 99, 36, -42, 82, 15, -166, -93, 409, 95, 19, 231, -70, -134, -43, 223, 224, -146, -286, 234, 93, 142, 149, -12, -243, 253, -74, -45, 1, 181, -278, 97, -110, 8, -336, 8, -64, 73, 124, 60, 230, -112, 57, 139, 24, -197, 18, 106, -200, 277, -103, 10, 89, 50, -109, 22, 185, -36, 193, 90, -9, 40, -85, -163, 131, -217, 49, 65, 202, 8, -6, 122, 46, -214, -322, 198, 94, 110, 145, -87, 80, 8, 110, 73, -237, -15, -25, -152, 22, -62, -152, 321, -11, -79, 64, 285, -143, -49, -244, -44, 385, -4, -153, -39, -42, -27, -68, 396, 59, 121, -275, 100, 426, -126, -216, -39, 117, 95, 10, 6, -409, -119, -410, -422, -192, 137, 112, 161, -269, -90, -57, -13, 25, 179, 287, 90, 53, -152, -242, -312, -91, -130, -115, 16, -237, -17, -208, -105, -38, -31, 81, -72, 47, -85, -105, -15, 95, 45, 305, 200, 106, 115, -286, 109, -78, 227, -113, 213, -259, 41, -45, -127, -101, -60, -4, -96, 136, 102, 193, -206, 38, 40, -186, -121, -119, 277, 213, -27, 59, 137, 6, 64, 247, 144, 49, -4, -247, -62, 122, -238, 76, 216, 68, -105, 102, -79, -19, -190, -236, -209, 193, -8, 25, 74, 134, 113, 204, -235, 117, -103, 43, 88, 108, -205, -26, -185, -197, 302, -76, 74, 76, 147, 3, -54, -76, 30, -9, 119, -92, 12, -154, -128, -144, -308, 161, 157, 137, -81, 338, -234, -76, -56, 292, -58, -10, -166, 195, -176, -185, 224, 103, 86, -16, -239, -389, -113, -71, -164, -6, 61, -35, 145, -86, 197, 94, 109, 177, 12, 136, 101, -110, -195, -147, -159, -321, -53, 92, -88, 103, -336, -107, -26, 221, -63, -19, -124, 295, 81, 193, -15, -32, -148, 192, 52, 84, 150, 74, -161, 170, -71, 47, -182, -12, 20, 63, -223, -117, 35, -145, -79, -60, -32, 148, 25, -75, 97, -80, -74, -125, 164, 62, -31, -150, 167, -194, 53, 179, -89, -67, 27, 89, 99, 111, -94, -178, -38, 73, 72, 298, 85, 200, -137, 39, 114, 109, 146, -50, 311, -95, 299, -45, 19, 81, -328, 43, -65, 135, -166, 226, -153, 307, 335, -128, 167, -127, -179, -161, 264, -30, 91, 14, 66, -148, 66, -168, 116, -78, 215, -490, 33, -17, 120, 71, 337, 62, -5, 90, 199, -255, 145, -93, -55, 53, -120, 199, -178, -165, -62, -310, -31, -497, -281, 145, 10, -161, 178, 366, -24, 93, 187, -177, 136, -257, 77, -406, -40, 206, -149, -203, -135, -365, 232, -308, -172, 100, -9, 280, 290, 160, -30, 86, -52, 162, 148, -74, 231, -321, 86, 44, 144, 73, 95, 27, -47, 40, 247, 62, -153, -14, -3, 208, 90, 20, 330, -314, -23, -369, 137, 155, 31, 0, -131, 241, -281, 11, 343, -130, 60, 128, -137, -170, -201, 76, 70, 124, -142, 161, -96, 175, -216, -320, 158, -158, 4, 198, -5, -260, 3, 335, -145, -51, -245, -34, 99, 207, -1, 147, 475, 97, 28, -163, -152, -85, -107, -129, -226, -117, -18, -90, -58, 14, -355, 92, 71, 373, 21, 205, 22, -56, -166, 17, 118, 215, 131, -97, -131, -136, -105, 69, 239, 87, -73, 0, -38, 78, -119, 25, -8, 18, 87, -18, 1, 256, 47, 231, -17, 122, 16, -88, -43, 122, 142, 51, 214, -4, -228, -179, -110, -5, 21, -111, 131, 46, -81, -98, -97, 170, 74, -60, -61, -163, 29, 16, 148, -28, -23, -144, 19, 1, 5, 214, -73, -115, -58, 186, -114, 207, 190, -66, -59, -29, 92, 175, 30, -101, -20, 39, -190, 4, 17, 285, 39, -14, -23, -3, -226, 46, 28, 223, -196, -88, -103, 107, -27, -92, 163, 7, 18, 147, 266, -21, -204, 171, 49, 95, 77, 18, -76, -15, 50, -100, -328, 200, -33, -226, -358, 106, 97, -494, 154, -107, 226, 326, -45, 40, -15, 99, -156, 164, 40, -225, 28, -132, -234, -150, 206, 142, -22, 89, -37, 84, 197, 180, -40, 3, 96, 5, -207, -183, -115, 184, 179, -153, 48, -194, 167, -93, 214, 152, 202, -93, 63, 115, 228, 18, 182, -17, -36, -438, -262, -251, 156, -224, 84, -264, 59, -344, -215, 26, 110, 0, -56, -185, 43, 135, -111, -127, 290, -200, -1, -66, 219, 115, -174, -33, 145, -268, -141, 49, 188, -164, 155, 194, -32, -18, 82, -57, 363, -219, -10, -63, -17, 99, -30, 28, -256, 150, 303, -169, -155, 66, 6, 121, -36, -169, 156, 62, -65, -65, 71, 274, 130, 119, -107, 113, 191, -20, -154, -9, -282, -136, 149, -88, -104, 126, -105, 87, 82, -146, 153, -153, 229, -147, 33, -113, -107, -1, 21, 185, -27, 37, -107, 431, -353, 173, 277, 233, 74, 123, -46, -5, -13, 106, -181, 434, -10, -27, -31, 241, 142, -142, -53, 34, -201, 79, 30, -64, 79, 7, -242, 130, 29, -157, -1, 59, 252, -145, 65, 101, 48, -205, -184, -332, -146, 391, -208, 163, -70, -9, -146, 85, 265, 462, 473, 380, 156, 84, -244, 73, 16, 35, 16, -247, -100, -148, -73, 146, 84, 101, 24, 286, -125, 79, -146, 83, -72, 74, -16, 88, 131, 71, 229, 405, 209, 72, -34, -13, 32, 115, 234, -82, 259, -182, -63, 198, -75, 94, -82, 184, 175, -76, 136, 191, -175, 54, 26, 269, 24, 485, -189, 122, -342, -69, 107, 53, 158, -75, -85, -68, -130, 221, -65, 281, -35, 321, 80, 38, 67, 78, 146, -97, 186, 89, -25, 4, -133, 30, 80, -17, -24, 50, 5, 183, -112, 44, -47, -83, 63, 1, -4, -51, 36, -194, 195, -172, -106, 86, -5, -229, -78, -14, 109, -174, -62, -93, -197, -302, 31, -230, -26, -27, 78, -64, -146, -107, -168, 133, 129, -68, 134, -82, 176, -5, 3, 100, -110, -189, 35, -46, -226, 83, 41, -85, -18, -156, 114, 232, -184, -227, 89, 78, -155, 6, -84, -17, -47, 8, 179, 61, 45, 7, -51, -196, 63, -365, 36, 29, -73, -34, -84, 53, 78, 57, 109, 133, -124, 11, 46, 150, -84, 143, 233, -12, -305, -295, -330, 111, -206, -193, 8, 19, 154, 34, -286, -244, 3, 47, 131, 9, -2, -174, -82, -72, -124, 134, 361, 146, 214, 65, -404, -46, 257, 296, 155, -101, -232, -41, 49, 47, -149, -23, 18, -91, -227, 1, 13, -6, 218, -143, -135, -192, 95, -129, -44, -266, -158, -169, -75, -70, -113, 146, 156, -51, -162, -315, 90, 14, 3, -188, -36, -302, -33, 160, -104, 173, 1, 178, -227, -105, 142, -9, -131, 190, -52, -149, -60, 43, -97, 132, 280, 25, 73, -29, -432, -111, -123, -16, -75, -47, 30, -319, 131, -38, -236, -106, -119, 276, 76, 389, -291, 616, 426, 57, 101, -37, -31, -109, -174, -221, 110, 189, -172, 177, -46, 250, -66, 20, 215, 445, 213, 117, 103, 46, 226, 53, 252, -282, -324, -114, 224, -73, -151, -85, -258, -98, -34, 180, -39, 202, 65, 110, 210, -189, 276, 42, 157, -28, 207, 41, -149, -176, -64, -73, 50, 187, -74, 233, -20, -20, 31, -194, -87, 38, 156, -239, -79, -178, 67, -43, -11, 325, -40, -164, -79, -294, 51, -26, -220, -165, 21, -146, 156, -1, -49, -88, 95, 39, 31, 101, -9, 69, 56, -2, 39, 33, -78, -38, -24, -22, 74, -206, 242, -192, 60, -284, 79, -239, 7, 61, 59, 212, -79, -213, -8, -197, -140, 77, 119, 34, 69, -264, 25, 323, 193, 172, -211, 296, -444, -265, 455, 126, -69, 144, -23, 2, -48, -180, -5, -119, -104, 97, 177, 16, -36, 23, -50, -27, 98, 31, 70, 63, 83, 78, 138, -33, 103, -6, -215, 370, 31, -276, -70, -124, -58, 203, -25, 191, 118, 163, 32, -268, -69, -118, 83, -353, 55, 137, -91, -158, -70, -154, 43, 142, 180, 32, -87, -262, -148, -146, -136, 235, -55, 254, 44, -137, -376, -82, -139, 76, 13, -63, -15, 143, -365, 168, 60, 64, 247, -48, 15, 33, 34, 95, -184, 197, -170, 54, 223, -80, -115, -74, 190, -119, 9, -30, -169, 141, 201, -10, 105, -43, -116, 67, 52, -161, 149, -60, 195, -202, 0, 138, 291, 195, 177, 49, -135, 12, 141, 125, -150, 131, 48, -247, -7, 12, 189, -11, 99, -49, 181, 94, 253, -30, 25, 119, 187, -225, 9, -178, 163, 32, 305, 100, -209, -285, -137, 252, -95, -208, -164, 141, 36, -108, -67, 108, 111, 246, 70, 271, 150, 44, 32, -26, 34, 137, -6, -94, 53, -220, 66, -242, 62, 14, 232, -2, 267, -6, 51, -10, -166, 160, -23, -28, 82, -95, 313, -48, -49, -138, 124, 43, 68, 109, -87, 117, -65, 192, -336, 121, 132, 10, 198, -17, -163, 55, -51, -85, -132, 122, 196, 97, -297, -219, -185, -269, -91, -472, 217, -126, 184, -189, 85, 51, -103, 75, 83, -138, -31, -37, -128, -425, 29, -133, -154, 115, -86, 188, 171, 46, 184, 277, -65, 66, -5, 281, 11, -464, -91, -237, 255, 134, -148, -167, 152, -63, -534, -126, 65, 43, 2, 70, 27, 60, 195, 177, 220, -55, 274, -146, -7, -125, -89, -330, -97, 16, 16, -39, 266, -127, -32, 77, 75, -191, 66, -309, -1, 93, 135, 56, 69, 187, 127, -91, -161, 165, -13, -53, 60, -34, -164, -10, -85, -79, -83, 119, -25, 230, 123, 75, -74, 98, -132, 79, -146, -114, 77, -84, 152, 203, 25, -130, -14, -71, -139, 22, -203, 163, 203, -55, 30, -8, 96, -112, 0, -65, -213, 81};
static matrix LAYER_5_KERNEL_MAT = {LAYER_5_KERNEL, 32, 144};

#pragma PERSISTENT(LAYER_5_BIAS)
static dtype LAYER_5_BIAS[32] = {26, -11, -6, 39, -10, 16, 58, -2, -17, -41, 4, -5, -68, 43, 20, 65, -39, -51, 94, 45, 18, -24, 23, 14, -45, -2, -7, -17, 19, -90, 2, 46};
static matrix LAYER_5_BIAS_MAT = {LAYER_5_KERNEL, 32, 1};


#pragma PERSISTENT(LAYER_6_KERNEL)
static dtype LAYER_6_KERNEL[320] = {-73, 60, 301, 55, -260, 537, 176, 467, 384, 300, 513, 617, -824, 208, 28, -109, -391, -478, 299, -26, 75, 166, -489, 145, -152, 378, -418, -136, -316, -570, 375, 425, 10, -542, -155, 405, 161, 378, 409, -289, -432, 5, -541, -189, 181, 125, -297, 511, 198, -650, 281, 138, 312, -434, 243, 575, -247, -57, 288, -64, -88, -572, 248, 204, -195, 207, -590, 206, 393, 42, 130, 370, -261, -211, 306, 284, -60, -653, -339, -264, -158, -56, 374, -322, 317, 434, 15, 289, 102, 218, 41, -59, -354, -148, -69, -404, 140, -295, -284, 173, -28, -287, -370, -297, 461, -74, 299, 456, 283, 194, 305, 264, 364, -163, 92, -50, -226, -135, -186, -559, 453, 55, 10, 422, 301, 322, 274, -506, 344, -96, -433, -273, -328, 253, -197, -251, -52, -67, -472, -464, -74, -213, -355, -392, -8, 291, -389, -431, -444, -355, -220, 402, -337, -20, 5, 576, -394, 282, 333, 108, 373, 235, 214, -542, -363, 44, 342, -79, 476, 245, -161, 120, 201, 273, 392, -238, -66, -39, -31, -206, 602, 179, -155, -97, 158, -31, 421, -322, 357, 384, -77, 400, -398, 322, 369, -532, -337, 387, 478, -422, -105, 677, 160, 663, -124, 283, -51, -188, 18, -311, 13, -93, -271, 194, 359, 121, -186, 284, -514, -36, -93, 475, -358, 415, -28, -258, 301, 399, 11, -53, -476, 577, 235, 581, -388, -123, 266, -344, -253, 64, 342, -128, -335, 324, 170, 32, -188, 488, 568, 81, 117, -37, -546, -142, 419, -110, 418, 428, -631, 325, -463, -535, 118, 94, 279, -306, 158, -236, -141, 399, -113, 373, -102, 373, 393, 408, -335, 258, 449, 210, -154, -93, -457, 204, -178, 242, -222, 308, -422, -228, 442, -274, -310, 292, -271, 304, 537, -731, 35, -233, -123, -460, -340, 54, 240, 448, 232, 69, -652, -276, -427, -12, 109, -137, -166, -307, 471, -137, -328, 536};
static matrix LAYER_6_KERNEL_MAT = {LAYER_6_KERNEL, 10, 32};

#pragma PERSISTENT(LAYER_6_BIAS)
static dtype LAYER_6_BIAS[10] = {52, 86, -11, -12, -32, 13, -57, -45, 15, 0};
static matrix LAYER_6_BIAS_MAT = {LAYER_6_KERNEL, 10, 1};


#pragma PERSISTENT(INPUT_BUFFER)
static dtype INPUT_BUFFER[INPUT_LENGTH] = {0, 0, 0, 0, 0, 0, 0, 0, 0, 0, 0, 0, 0, 0, 0, 0, 0, 0, 0, 0, 0, 0, 0, 0, 0, 0, 0, 0, 0, 0, 0, 0, 0, 0, 0, 0, 0, 0, 0, 0, 0, 0, 0, 0, 0, 0, 0, 0, 0, 0, 0, 0, 0, 0, 0, 0, 0, 0, 0, 0, 0, 0, 0, 0, 0, 0, 0, 0, 0, 0, 0, 0, 0, 0, 0, 0, 0, 0, 0, 0, 0, 0, 0, 0, 0, 0, 0, 0, 0, 0, 0, 0, 0, 0, 0, 0, 0, 0, 0, 0, 0, 0, 0, 0, 0, 0, 0, 0, 0, 0, 0, 0, 0, 0, 0, 0, 0, 0, 0, 0, 0, 0, 0, 0, 44, 602, 1015, 811, 124, 0, 0, 0, 0, 0, 0, 0, 0, 0, 0, 0, 0, 0, 0, 0, 0, 0, 0, 0, 0, 0, 0, 0, 148, 1007, 1007, 1015, 429, 0, 0, 0, 0, 0, 0, 0, 0, 0, 0, 0, 0, 0, 0, 0, 0, 0, 0, 0, 0, 0, 0, 84, 791, 1007, 1007, 1015, 429, 0, 0, 0, 0, 0, 0, 0, 0, 0, 0, 0, 0, 0, 0, 0, 0, 0, 0, 0, 0, 0, 441, 762, 1007, 1007, 1007, 1015, 678, 437, 248, 0, 0, 0, 0, 0, 0, 0, 0, 0, 0, 0, 0, 0, 0, 0, 0, 0, 0, 0, 1015, 1007, 1007, 1007, 1007, 1015, 1007, 1007, 883, 204, 0, 0, 0, 0, 0, 0, 0, 0, 0, 0, 0, 0, 0, 0, 0, 0, 0, 730, 1024, 1015, 1015, 1015, 1015, 939, 891, 1015, 1015, 1015, 0, 0, 0, 0, 0, 0, 0, 0, 0, 0, 0, 0, 0, 0, 0, 0, 252, 887, 1015, 1007, 1007, 1007, 590, 309, 248, 514, 1007, 1007, 421, 0, 0, 0, 0, 0, 0, 0, 0, 0, 0, 0, 0, 0, 0, 128, 927, 1007, 1015, 1007, 883, 550, 40, 0, 0, 124, 923, 1007, 975, 453, 20, 0, 0, 0, 0, 0, 0, 0, 0, 0, 0, 0, 0, 148, 1007, 1007, 1015, 754, 80, 0, 0, 0, 0, 0, 437, 1007, 1015, 1007, 140, 0, 0, 0, 0, 0, 0, 0, 0, 0, 0, 0, 0, 148, 1007, 1007, 807, 120, 0, 0, 0, 0, 0, 0, 124, 803, 1015, 1007, 140, 0, 0, 0, 0, 0, 0, 0, 0, 0, 0, 0, 0, 148, 1015, 1015, 0, 0, 0, 0, 0, 0, 0, 0, 128, 811, 1024, 1015, 658, 0, 0, 0, 0, 0, 0, 0, 0, 0, 0, 0, 0, 562, 1007, 1007, 0, 0, 0, 0, 0, 0, 0, 0, 437, 1007, 1015, 1007, 140, 0, 0, 0, 0, 0, 0, 0, 0, 0, 0, 0, 0, 871, 1007, 1007, 0, 0, 0, 0, 0, 0, 84, 252, 927, 1007, 1015, 923, 120, 0, 0, 0, 0, 0, 0, 0, 0, 0, 0, 0, 0, 871, 1007, 1007, 0, 0, 0, 0, 0, 0, 578, 1007, 1007, 1007, 887, 244, 0, 0, 0, 0, 0, 0, 0, 0, 0, 0, 0, 0, 0, 871, 1007, 1007, 0, 0, 0, 0, 0, 730, 887, 1007, 1007, 1007, 722, 0, 0, 0, 0, 0, 0, 0, 0, 0, 0, 0, 0, 0, 0, 875, 1015, 1015, 293, 293, 915, 1015, 1015, 1024, 1015, 1015, 1015, 1015, 0, 0, 0, 0, 0, 0, 0, 0, 0, 0, 0, 0, 0, 0, 0, 453, 1007, 1007, 1015, 1007, 1007, 1007, 1007, 1015, 1007, 1007, 1007, 590, 0, 0, 0, 0, 0, 0, 0, 0, 0, 0, 0, 0, 0, 0, 0, 124, 923, 1007, 1015, 1007, 1007, 1007, 1007, 1015, 923, 758, 140, 40, 0, 0, 0, 0, 0, 0, 0, 0, 0, 0, 0, 0, 0, 0, 0, 0, 248, 570, 1015, 1007, 1007, 1007, 1007, 1015, 429, 0, 0, 0, 0, 0, 0, 0, 0, 0, 0, 0, 0, 0, 0, 0, 0, 0, 0, 0, 0, 0, 289, 698, 1007, 694, 285, 289, 120, 0, 0, 0, 0, 0, 0, 0, 0, 0, 0, 0, 0, 0, 0, 0, 0, 0, 0, 0, 0, 0, 0, 0, 0, 0, 0, 0, 0, 0, 0, 0, 0, 0, 0, 0, 0, 0, 0, 0, 0, 0, 0, 0, 0, 0, 0, 0, 0, 0, 0, 0, 0, 0, 0, 0, 0, 0, 0, 0, 0, 0, 0, 0, 0, 0, 0, 0, 0, 0, 0, 0, 0, 0, 0, 0, 0, 0, 0, 0, 0, 0, 0, 0, 0, 0, 0, 0, 0, 0, 0, 0, 0, 0, 0, 0, 0, 0, 0, 0, 0, 0, 0, 0, 0, 0, 0, 0, 0, 0, 0, 0, 0, 0, 0, 0, 0, 0, 0, 0, 0, 0, 0, 0};
static matrix INPUT_BUFFER_MAT = {INPUT_BUFFER, INPUT_NUM_ROWS, INPUT_NUM_COLS};

#pragma PERSISTENT(OUTPUT_BUFFER)
static dtype OUTPUT_BUFFER[OUTPUT_LENGTH] = {0};
static matrix OUTPUT_BUFFER_MAT = {OUTPUT_BUFFER, OUTPUT_NUM_LABELS, LEA_RESERVED};
static dtype LABEL;

#pragma PERSISTENT(BUFFER_0)
static dtype BUFFER_0[INPUT_OUTPUT_BUFFER_LENGTH] = {0};
static matrix BUFFER_0_MAT = {BUFFER_0, 0, 0};

#pragma PERSISTENT(BUFFER_1)
static dtype BUFFER_1[INPUT_OUTPUT_BUFFER_LENGTH] = {0};
static matrix BUFFER_1_MAT = {BUFFER_1, 0, 0};

#endif
